{
    "Gryffindor": {
        "weights": [
            -0.35107915027181547,
            0.1561556526566229,
            -0.9562023740870655,
            -0.1466967839436912,
            0.451032313310033,
            -0.07239953150950776,
            0.8307913873663867,
            -0.7507652193007383,
            -0.9596275434720428,
            -0.15845975315757221,
            0.004686154889584212,
            -0.33805945292119927,
            0.8384460355250425
        ],
        "bias": -2.69386935362012
    },
    "Slytherin": {
        "weights": [
            -0.011697378113124093,
            -0.6853587874126829,
            -0.8037689796325256,
            0.6956162920644267,
            -1.4478772005995921,
            -0.34543033502718895,
            -0.593903833754491,
            -0.010774388517370972,
            0.32740226534565225,
            0.5435154748096457,
            -0.059761490691656136,
            -0.6558627416004921,
            -0.48510609484370276
        ],
        "bias": -2.9407240306976754
    },
    "Ravenclaw": {
        "weights": [
            0.22176915064601527,
            -0.7150257877522003,
            0.5376163119709325,
            0.7161902663319438,
            0.33981034464749843,
            1.1723893289256357,
            0.9739316726125014,
            0.0599312049077257,
            0.025424205465985505,
            -0.010041373679719542,
            0.04584156012813649,
            1.024608213922257,
            0.0684363210463463
        ],
        "bias": -2.174014088416378
    },
    "Hufflepuff": {
        "weights": [
            0.16377060515328135,
            1.2600527406607442,
            1.2702673456265121,
            -1.2904265810645528,
            0.5736648273998216,
            -0.808884923401535,
            -1.3402982491997972,
            0.7588279903800933,
            0.6759311542768017,
            -0.3475039777513519,
            -0.019697855075568142,
            -0.080998961181915,
            -0.5079536769398989
        ],
        "bias": -1.7942934912980308
    }
}